<?xml version="1.0"?>
<opencv_storage>
<harr1 type_id="opencv-haar-classifier">
  <size>
    50 50</size>
  <stages>
    <_>
      <trees>
        <_>
          <_>
            <feature>
              <rects>
                <_>
                  0 0 38 24 -1.</_>
                <_>
                  0 6 38 12 2.</_></rects>
              <tilted>0</tilted></feature>
            <threshold>-0.0851572230458260</threshold>
            <left_val>1.</left_val>
            <right_val>-0.9999998211860657</right_val></_></_></trees>
      <stage_threshold>1.</stage_threshold>
      <parent>-1</parent>
      <next>-1</next></_>
    <_>
      <trees>
        <_>
          <_>
            <feature>
              <rects>
                <_>
                  0 7 39 24 -1.</_>
                <_>
                  13 15 13 8 9.</_></rects>
              <tilted>0</tilted></feature>
            <threshold>-0.2022656947374344</threshold>
            <left_val>1.</left_val>
            <right_val>-1.</right_val></_></_></trees>
      <stage_threshold>1.</stage_threshold>
      <parent>0</parent>
      <next>-1</next></_>
    <_>
      <trees>
        <_>
          <_>
            <feature>
              <rects>
                <_>
                  3 0 3 32 -1.</_>
                <_>
                  3 8 3 16 2.</_></rects>
              <tilted>0</tilted></feature>
            <threshold>-0.0212220307439566</threshold>
            <left_val>1.</left_val>
            <right_val>-0.9999995231628418</right_val></_></_></trees>
      <stage_threshold>1.</stage_threshold>
      <parent>1</parent>
      <next>-1</next></_>
    <_>
      <trees>
        <_>
          <_>
            <feature>
              <rects>
                <_>
                  0 0 50 16 -1.</_>
                <_>
                  0 0 25 8 2.</_>
                <_>
                  25 8 25 8 2.</_></rects>
              <tilted>0</tilted></feature>
            <threshold>-2.2698249667882919e-003</threshold>
            <left_val>1.</left_val>
            <right_val>-0.9999995231628418</right_val></_></_></trees>
      <stage_threshold>1.</stage_threshold>
      <parent>2</parent>
      <next>-1</next></_>
    <_>
      <trees>
        <_>
          <_>
            <feature>
              <rects>
                <_>
                  0 4 22 46 -1.</_>
                <_>
                  0 4 11 23 2.</_>
                <_>
                  11 27 11 23 2.</_></rects>
              <tilted>0</tilted></feature>
            <threshold>-0.0291487108916044</threshold>
            <left_val>1.</left_val>
            <right_val>-0.9999995231628418</right_val></_></_></trees>
      <stage_threshold>1.</stage_threshold>
      <parent>3</parent>
      <next>-1</next></_>
    <_>
      <trees>
        <_>
          <_>
            <feature>
              <rects>
                <_>
                  0 0 38 16 -1.</_>
                <_>
                  0 4 38 8 2.</_></rects>
              <tilted>0</tilted></feature>
            <threshold>-8.9295534417033195e-003</threshold>
            <left_val>1.</left_val>
            <right_val>-0.9999995827674866</right_val></_></_></trees>
      <stage_threshold>1.</stage_threshold>
      <parent>4</parent>
      <next>-1</next></_></stages></harr1>
</opencv_storage>
